svm_type c_svc
kernel_type rbf
gamma 0.090909090909090912
nr_class 2
total_sv 269
rho -0.29392404155269891
label 1 -1
probA -0.66097376001296237
probB -0.034078509628583234
nr_sv 140 129
SV
0.70371892905192945 1:15.127073 2:10.054563 3:16 4:11.733702 5:2.0532819 6:5.1350802 7:0.2 8:0.23385687 9:0 10:1.6966855 11:1.6966855 
0.67045076402713044 1:15.009667 2:11.887231 3:8 4:9.8295493 5:1.6575669 6:5.0826545 7:0.35714286 8:0.12872345 9:2.0538083 10:0 11:3.1263089 
0.53957499611996018 1:11.388256 2:9.9927268 3:8 4:7.2322638 5:2.348827 6:2.6458536 7:0.25 8:0.12393683 9:1.0703333 10:0 11:3.0856593 
0.80888063193120019 1:10.96811 2:2.2192252 3:6 4:8.7429698 5:2.2122972 6:5.2787033 7:0.45 8:0.16350844 9:0 10:1.0461499 11:1.1789906 
0.6468443786136473 1:10.771039 2:6.2810338 3:22 4:10.771039 5:3.0454159 6:4.5447687 7:0.13095238 8:0.15195071 9:0 10:0 11:0 
0.12714410525378808 1:10.329475 2:8.2087294 3:8 4:6.0214797 5:1.6923529 6:4.3600238 7:0.21428571 8:0.060517912 9:2.0212716 10:0 11:2.2867233 
0.31208387479674315 1:10.036593 2:7.9286094 3:9 4:5.9726263 5:0.28250517 6:4.8637263 7:0.1875 8:0.074428343 9:1.0345453 10:0 11:3.0294215 
0.48375563764914203 1:9.2443708 2:6.3353938 3:16 4:7.5560004 5:1.2207519 6:6.5514839 7:0.13333333 8:0.20845305 9:0.8441852 10:0 11:0.8441852 
0.34250321166632092 1:9.1127341 2:5.9372202 3:15 4:7.0315754 5:1.2691966 6:4.4026412 7:0.125 8:0.021417502 9:1.0405794 10:0 11:1.0405794 
0.55020273415087262 1:8.9053374 2:4.5041888 3:20 4:8.9053374 5:6.4291726 6:3.9971132 7:0.13157895 8:0.1019484 9:0 10:0 11:0 
0.29009555586911562 1:8.3811639 2:6.637101 3:8 4:5.8758307 5:0.17105128 6:5.3843638 7:0.21428571 8:0.07208697 9:1.0363756 10:0 11:1.4689577 
0.42346600685071756 1:7.8109924 2:0 3:21 4:5.8700611 5:4.3843252 6:3.1241119 7:0.075 8:0.098852566 9:0.97046566 10:0 11:0.97046566 
0.55363397739279796 1:7.8088307 2:0 3:20 4:4.4173358 5:3.9682732 6:6.9080842 7:0.065789474 8:0.11823508 9:1.6957475 10:0 11:1.6957475 
0.85101646263265696 1:7.5713489 2:1.5703245 3:6 4:7.5713489 5:5.1834532 6:3.7149664 7:0.4 8:0.19134285 9:0 10:0 11:0 
1 1:7.4331687 2:0 3:7 4:5.3081314 5:1.081595 6:1.407995 7:0.20833333 8:0.021197403 9:1.0625187 10:0 11:1.0625187 
0.68854374967958454 1:7.3314201 2:5.2313775 3:9 4:4.3927155 5:7.3018206 6:8.0799294 7:0.1875 8:0.08441899 9:0.87534856 10:0 11:2.0633561 
1 1:7.3282784 2:3.158764 3:11 4:5.2403313 5:0.32211399 6:2.7441508 7:0.125 8:0.11597443 9:1.0439736 10:0 11:1.0439736 
1 1:7.3008017 2:0.28052399 3:6 4:6.3764964 5:1.8644274 6:6.9860743 7:0.35 8:0.070436018 9:0 10:0 11:0.92430531 
0.082202205635511311 1:7.1731236 2:6.0983067 3:8 4:5.1188691 5:2.211261 6:3.2151294 7:0.17857143 8:0.084787894 9:0 10:0 11:2.0542545 
0.37300642477499601 1:7.0840871 2:1.3409153 3:20 4:7.0840871 5:9.2034681 6:6.1807967 7:0.13157895 8:0.10413921 9:0 10:0 11:0 
0.85493024666005213 1:6.896121 2:1.775104 3:19 4:6.896121 5:0.56698475 6:5.205002 7:0.097222222 8:0.048895612 9:0 10:0 11:0 
0.89894743557506174 1:6.738793 2:0 3:32 4:6.738793 5:3.9621849 6:4.4445757 7:0.056451613 8:0.15747609 9:0 10:0 11:0 
1 1:6.5221775 2:0 3:20 4:4.9559949 5:5.3738663 6:7.2463669 7:0.078947368 8:0.018981744 9:0 10:0.78309132 11:0.78309132 
0.99731104495914702 1:6.5046933 2:3.4255191 3:12 4:4.6938576 5:2.6446194 6:5.9174858 7:0.11363636 8:0.017716522 9:0.90541782 10:0 11:0.90541782 
1 1:6.3684536 2:3.1632891 3:8 4:4.2456357 5:1.4282986 6:0.97221564 7:0.14285714 8:0.031159018 9:0 10:1.0614089 11:1.0614089 
1 1:6.3680415 2:5.0498729 3:8 4:4.245361 5:1.655251 6:0.87859412 7:0.14285714 8:0.055432327 9:1.0613403 10:0 11:1.0613403 
0.36089554559152026 1:6.3200071 2:0 3:25 4:6.3200071 5:3.3171759 6:9.2199213 7:0.083333333 8:0.05133426 9:0 10:0 11:0 
1 1:6.1853136 2:1.9898692 3:20 4:6.1853136 5:0.39152949 6:3.5433835 7:0.078947368 8:0.10150511 9:0 10:0 11:0 
1 1:6.1060665 2:3.957562 3:8 4:4.070711 5:1.1210059 6:3.9873701 7:0.14285714 8:0.077596574 9:1.0176778 10:0 11:1.0176778 
1 1:6.0046061 2:0 3:6 4:6.0046061 5:2.8507639 6:3.8057602 7:0.3 8:0.13429889 9:0 10:0 11:0 
0.74695077764398687 1:5.9978724 2:1.0518079 3:31 4:5.9978724 5:4.1903982 6:2.0955987 7:0.05 8:0.032861655 9:0 10:0 11:0 
0.87864777405583028 1:5.8813915 2:0.72316709 3:16 4:3.7629317 5:8.6729582 6:8.6413689 7:0.1 8:0.026202119 9:1.0592299 10:0 11:1.0592299 
1 1:5.8722199 2:3.7375342 3:7 4:3.9148132 5:2.6130725 6:4.7148934 7:0.16666667 8:0.061852383 9:0.97870331 10:0 11:0.97870331 
1 1:5.8641104 2:0 3:19 4:5.8641104 5:3.6896197 6:4.0147962 7:0.083333333 8:0.027925091 9:0 10:0 11:0 
1 1:5.8099049 2:3.6660939 3:9 4:3.8732699 5:2.3929048 6:5.1654714 7:0.125 8:0.051372662 9:0.96831749 10:0 11:0.96831749 
1 1:5.762557 2:1.7008243 3:21 4:5.762557 5:1.7477534 6:5.5937644 7:0.075 8:0.052857008 9:0 10:0 11:0 
1 1:5.7178025 2:0.22943679 3:28 4:5.7178025 5:0.036464489 6:6.0743979 7:0.055555556 8:0.027676981 9:0 10:0 11:0 
1 1:5.6718956 2:0.97244453 3:15 4:5.6718956 5:2.6328126 6:5.8365833 7:0.10714286 8:0.046899219 9:0 10:0 11:0 
0.92117334056388556 1:5.5830869 2:1.0234758 3:19 4:5.5830869 5:0.094326314 6:6.8022982 7:0.083333333 8:0.056070616 9:0 10:0 11:0 
1 1:5.5436623 2:0 3:15 4:5.5436623 5:0.65976189 6:6.8963975 7:0.10714286 8:0.021783085 9:0 10:0 11:0 
1 1:5.4689643 2:1.0964723 3:20 4:5.4689643 5:5.5937597 6:4.3650309 7:0.078947368 8:0.036372926 9:0 10:0 11:0 
1 1:5.4109434 2:1.3496863 3:10 4:5.4109434 5:1.8554838 6:7.3419819 7:0.16666667 8:0.047679147 9:0 10:0 11:0 
0.4159648855463407 1:5.3825082 2:1.0721014 3:36 4:5.3825082 5:1.5539792 6:7.4872127 7:0.042857143 8:0.02658062 9:0 10:0 11:0 
0.30884316423823266 1:5.3130722 2:1.0674831 3:12 4:5.3130722 5:1.5326943 6:0.64536771 7:0.11363636 8:0.10674516 9:0 10:0 11:0 
1 1:5.2960072 2:2.2679971 3:16 4:5.2960072 5:0.24748103 6:1.7785456 7:0.083333333 8:0.062070634 9:0 10:0 11:0 
1 1:5.2732303 2:0.10366825 3:28 4:5.2732303 5:7.7176255 6:6.8189311 7:0.064814815 8:0.019471918 9:0 10:0 11:0 
0.33570647145134402 1:5.2727322 2:1.0806768 3:7 4:5.2727322 5:2.095136 6:1.0381032 7:0.20833333 8:0.12929163 9:0 10:0 11:0 
0.21151113598536211 1:5.268154 2:0.15819438 3:15 4:5.268154 5:1.5558409 6:1.7620483 7:0.089285714 8:0.055455204 9:0 10:0 11:0 
1 1:5.2501431 2:0.25797964 3:34 4:5.2501431 5:4.0592262 6:6.885758 7:0.045454545 8:0.020014252 9:0 10:0 11:0 
1 1:5.249926 2:0 3:30 4:5.249926 5:2.1832058 6:1.3843973 7:0.043103448 8:0.097203621 9:0 10:0 11:0 
1 1:5.2439002 2:1.0600353 3:16 4:5.2439002 5:1.9151602 6:1.3987532 7:0.083333333 8:0.10828656 9:0 10:0 11:0 
1 1:5.2258652 2:0 3:30 4:5.2258652 5:3.375563 6:7.5468509 7:0.051724138 8:0.093784752 9:0 10:0 11:0 
1 1:5.1899077 2:1.9758355 3:8 4:5.1899077 5:0.75682806 6:3.1943781 7:0.17857143 8:0.14434981 9:0 10:0 11:0 
1 1:5.1801482 2:0 3:8 4:5.1801482 5:1.6736625 6:2.8691596 7:0.17857143 8:0.018883101 9:0 10:0 11:0 
1 1:5.1688618 2:0.37490116 3:6 4:5.1688618 5:1.3915259 6:3.1542018 7:0.25 8:0.047241842 9:0 10:0 11:0 
0.018544932904184963 1:5.1450562 2:0.9971984 3:7 4:5.1450562 5:2.8379731 6:2.307447 7:0.20833333 8:0.15887442 9:0 10:0 11:0 
1 1:5.1263874 2:2.3086191 3:10 4:5.1263874 5:1.6051088 6:3.4357695 7:0.13888889 8:0.060261735 9:0 10:0 11:0 
0.19231538113072744 1:5.0940642 2:0 3:24 4:3.3960428 5:2.1949281 6:8.1689353 7:0.043478261 8:0.022727488 9:0 10:0.8490107 11:0.8490107 
0.90000166617855337 1:5.0825328 2:1.0421038 3:15 4:5.0825328 5:0.59287211 6:4.2031076 7:0.089285714 8:0.023421567 9:0 10:0 11:0 
1 1:5.0713301 2:0.57590982 3:23 4:5.0713301 5:2.3200629 6:8.5392728 7:0.068181818 8:0.020443713 9:0 10:0 11:0 
1 1:5.0450458 2:0.99288072 3:7 4:5.0450458 5:0.15543496 6:4.3810522 7:0.20833333 8:0.051517079 9:0 10:0 11:0 
1 1:5.0444039 2:1.9761903 3:16 4:5.0444039 5:3.2100389 6:3.0577031 7:0.083333333 8:0.13581198 9:0 10:0 11:0 
1 1:5.0292774 2:0.095415557 3:7 4:5.0292774 5:1.576539 6:4.3171994 7:0.20833333 8:0.016903487 9:0 10:0 11:0 
1 1:5.0142514 2:1.040033 3:12 4:5.0142514 5:2.6255519 6:3.796048 7:0.11363636 8:0.20965599 9:0 10:0 11:0 
1 1:5.0049961 2:0.84590476 3:7 4:5.0049961 5:3.7457393 6:2.9280116 7:0.20833333 8:0.016328872 9:0 10:0 11:0 
0.57334054956421698 1:4.9735536 2:0 3:38 4:4.9735536 5:4.4465345 6:7.9782274 7:0.040540541 8:0.043057822 9:0 10:0 11:0 
1 1:4.9162985 2:0.08752639 3:19 4:4.9162985 5:0.0038196955 6:9.0853739 7:0.083333333 8:0.023798881 9:0 10:0 11:0 
0.93882383728758056 1:4.9114165 2:1.73563 3:10 4:4.9114165 5:2.2917575 6:9.110981 7:0.16666667 8:0.046270268 9:0 10:0 11:0 
0.22559921513331407 1:4.891122 2:0.50648903 3:13 4:4.891122 5:1.6618376 6:5.099026 7:0.10416667 8:0.14834207 9:0 10:0 11:0 
1 1:4.8625411 2:0 3:8 4:4.8625411 5:2.9242275 6:4.8795742 7:0.17857143 8:0.017770604 9:0 10:0 11:0 
1 1:4.8260219 2:0.69350371 3:10 4:4.8260219 5:0.70026784 6:5.770851 7:0.13888889 8:0.068170589 9:0 10:0 11:0 
0.57719720133394248 1:4.7877044 2:0 3:23 4:3.1918029 5:5.4416892 6:8.4403407 7:0.045454545 8:0.034736535 9:0.79795074 10:0 11:0.79795074 
1 1:4.7773029 2:0.69274022 3:30 4:4.7773029 5:4.3154917 6:4.2772242 7:0.043103448 8:0.021592674 9:0 10:0 11:0 
1 1:4.763756 2:1.126024 3:18 4:4.763756 5:0.45892677 6:6.0527559 7:0.073529412 8:0.027718428 9:0 10:0 11:0 
1 1:4.7264494 2:0 3:16 4:3.1509663 5:2.8239331 6:9.8047176 7:0.066666667 8:0.031281291 9:0.78774157 10:0 11:0.78774157 
1 1:4.7261556 2:0.16593324 3:13 4:4.7261556 5:0.45226389 6:6.2950185 7:0.10416667 8:0.12850633 9:0 10:0 11:0 
1 1:4.7215232 2:0.12064168 3:21 4:4.7215232 5:5.5069388 6:8.0411904 7:0.075 8:0.014815292 9:0 10:0 11:0 
1 1:4.6547967 2:0.65914749 3:19 4:4.6547967 5:1.2185868 6:6.5178905 7:0.069444444 8:0.017441652 9:0 10:0 11:0 
1 1:4.6301935 2:0.48989619 3:21 4:4.6301935 5:0.95842162 6:6.7781935 7:0.0625 8:0.053619558 9:0 10:0 11:0 
0.4771599144606154 1:4.6124075 2:0.0037035992 3:26 4:4.6124075 5:0.60697736 6:6.9332305 7:0.05 8:0.018890984 9:0 10:0 11:0 
1 1:4.5808191 2:0.36886001 3:7 4:4.5808191 5:6.3237984 6:10.162704 7:0.29166667 8:0.019888785 9:0 10:0 11:0 
1 1:4.5358688 2:0.36839349 3:10 4:4.5358688 5:2.045887 6:7.2569045 7:0.13888889 8:0.063011567 9:0 10:0 11:0 
1 1:4.4514864 2:1.4359439 3:14 4:4.4514864 5:4.8086336 6:6.0438439 7:0.096153846 8:0.042604604 9:0 10:0 11:0 
0.70647591774261209 1:4.4312941 2:0.056965799 3:66 4:4.4312941 5:1.2110196 6:7.6507237 7:0.019230769 8:0.020671936 9:0 10:0 11:0 
1 1:4.3070226 2:2.187268 3:16 4:4.3070226 5:2.7173886 6:7.9017592 7:0.083333333 8:0.14989535 9:0 10:0 11:0 
1 1:4.3048228 2:0 3:14 4:4.3048228 5:6.0732825 6:5.9291832 7:0.096153846 8:0.036172588 9:0 10:0 11:0 
0.70868604015558367 1:4.3036765 2:0 3:56 4:4.3036765 5:1.5046208 6:8.0787856 7:0.022727273 8:0.005442824 9:0 10:0 11:0 
1 1:4.3036304 2:1.2716432 3:26 4:4.3036304 5:5.2048997 6:6.3109151 7:0.05 8:0.031148648 9:0 10:0 11:0 
1 1:4.2879092 2:0 3:10 4:4.2879092 5:0.19538659 6:0.65273498 7:0.11111111 8:0.15526832 9:0 10:0 11:0 
1 1:4.2859847 2:0 3:16 4:4.2859847 5:0.27830258 6:0.50321508 7:0.066666667 8:0.07464194 9:0 10:0 11:0 
1 1:4.2790658 2:1.0606696 3:12 4:4.2790658 5:0.69690215 6:0.39365209 7:0.090909091 8:0.15226413 9:0 10:0 11:0 
1 1:4.2767951 2:0.066758511 3:11 4:4.2767951 5:2.8337184 6:8.3939253 7:0.125 8:0.051203395 9:0 10:0 11:0 
1 1:4.2757356 2:1.0700518 3:12 4:4.2757356 5:0.47291384 6:0.90112769 7:0.090909091 8:0.040971131 9:0 10:0 11:0 
1 1:4.2738291 2:1.0672138 3:7 4:4.2738291 5:0.013827589 6:0.93832349 7:0.16666667 8:0.17103043 9:0 10:0 11:0 
1 1:4.2737888 2:0 3:8 4:4.2737888 5:0.39799036 6:1.0623243 7:0.14285714 8:0.099909487 9:0 10:0 11:0 
1 1:4.2731529 2:0.093335526 3:19 4:4.2731529 5:0.64132787 6:0.60892823 7:0.055555556 8:0.015170101 9:0 10:0 11:0 
1 1:4.2728144 2:0 3:9 4:4.2728144 5:1.1979971 6:0.31199992 7:0.125 8:0.23600036 9:0 10:0 11:0 
1 1:4.2722897 2:1.0836665 3:17 4:4.2722897 5:0.95851645 6:0.79557262 7:0.0625 8:0.16691366 9:0 10:0 11:0 
1 1:4.2720996 2:2.1362534 3:7 4:4.2720996 5:0.67120593 6:0.8798923 7:0.16666667 8:0.18409666 9:0 10:0 11:0 
0.73902290774414792 1:4.2718488 2:1.0789918 3:6 4:4.2718488 5:0.62302478 6:1.332904 7:0.2 8:0.21953984 9:0 10:0 11:0 
1 1:4.2703429 2:0 3:17 4:4.2703429 5:0.0085477229 6:1.4169916 7:0.0625 8:0.034620922 9:0 10:0 11:0 
1 1:4.2678564 2:1.0717121 3:15 4:4.2678564 5:0.18262826 6:1.2602073 7:0.071428571 8:0.056502012 9:0 10:0 11:0 
1 1:4.265263 2:2.1340042 3:7 4:4.265263 5:1.3751581 6:0.41156787 7:0.16666667 8:0.090474488 9:0 10:0 11:0 
1 1:4.2645065 2:2.1242966 3:9 4:4.2645065 5:0.064060228 6:1.3663571 7:0.125 8:0.045068171 9:0 10:0 11:0 
0.74899025661871499 1:4.2641601 2:1.0514233 3:7 4:4.2641601 5:0.89661293 6:1.2880398 7:0.16666667 8:0.048535458 9:0 10:0 11:0 
1 1:4.2627895 2:1.0882193 3:6 4:4.2627895 5:0.15601752 6:1.67558 7:0.2 8:0.13088593 9:0 10:0 11:0 
1 1:4.2603517 2:1.0476639 3:7 4:4.2603517 5:6.8407863 6:5.0429849 7:0.20833333 8:0.063469957 9:0 10:0 11:0 
0.45948774319284064 1:4.2572871 2:1.0601596 3:12 4:4.2572871 5:1.213178 6:0.94153189 7:0.090909091 8:0.082267034 9:0 10:0 11:0 
1 1:4.2558938 2:1.1920858 3:8 4:4.2558938 5:0.19748676 6:8.4731771 7:0.17857143 8:0.017953179 9:0 10:0 11:0 
1 1:4.2534709 2:0.4379162 3:7 4:4.2534709 5:0.48606996 6:1.3002561 7:0.16666667 8:0.043008805 9:0 10:0 11:0 
1 1:4.249565 2:2.1178946 3:7 4:4.249565 5:0.05320112 6:1.8360111 7:0.16666667 8:0.067867825 9:0 10:0 11:0 
1 1:4.2475793 2:1.0598199 3:12 4:4.2475793 5:0.014603517 6:1.6901614 7:0.090909091 8:0.053317747 9:0 10:0 11:0 
1 1:4.2432524 2:0 3:11 4:4.2432524 5:0.49093595 6:1.8731195 7:0.1 8:0.073009446 9:0 10:0 11:0 
1 1:4.2417309 2:0 3:15 4:4.2417309 5:1.3543587 6:1.4436544 7:0.071428571 8:0.13409415 9:0 10:0 11:0 
0.34950680128829875 1:4.241653 2:1.0321871 3:8 4:4.241653 5:1.736611 6:0.91258067 7:0.14285714 8:0.24253397 9:0 10:0 11:0 
1 1:4.2415749 2:0 3:7 4:4.2415749 5:0.19212802 6:1.8883511 7:0.16666667 8:0.16482116 9:0 10:0 11:0 
1 1:4.2365534 2:1.0371048 3:10 4:4.2365534 5:1.8439363 6:0.72829893 7:0.11111111 8:0.045523001 9:0 10:0 11:0 
1 1:4.2357258 2:0 3:11 4:4.2357258 5:0.91868533 6:1.8689209 7:0.1 8:0.24843619 9:0 10:0 11:0 
1 1:4.2350073 2:0 3:9 4:4.2350073 5:1.4298675 6:1.4544696 7:0.125 8:0.061506526 9:0 10:0 11:0 
0.45963565575374177 1:4.2326949 2:0 3:9 4:4.2326949 5:1.8835172 6:1.0047132 7:0.125 8:0.26797807 9:0 10:0 11:0 
1 1:4.2322533 2:1.0999463 3:11 4:4.2322533 5:1.7606058 6:1.0519249 7:0.1 8:0.020467375 9:0 10:0 11:0 
1 1:4.231966 2:0 3:9 4:4.231966 5:1.6747638 6:1.2259058 7:0.125 8:0.14723091 9:0 10:0 11:0 
0.31833580931468197 1:4.2316324 2:1.078836 3:12 4:4.2316324 5:0.39918066 6:1.9405418 7:0.090909091 8:0.090864421 9:0 10:0 11:0 
1 1:4.2283785 2:3.153486 3:8 4:4.2283785 5:0.65639658 6:2.1015683 7:0.14285714 8:0.087027903 9:0 10:0 11:0 
0.34053703962373955 1:4.2270551 2:4.2270551 3:8 4:4.2270551 5:1.8774161 6:0.96675701 7:0.14285714 8:0.19713251 9:0 10:0 11:0 
1 1:4.22463 2:1.0411416 3:18 4:4.22463 5:6.9736746 6:4.835586 7:0.073529412 8:0.019744511 9:0 10:0 11:0 
1 1:4.2213691 2:2.0754442 3:8 4:4.2213691 5:1.4368247 6:1.7990263 7:0.14285714 8:0.10079428 9:0 10:0 11:0 
1 1:4.2203604 2:0.49764151 3:20 4:4.2203604 5:2.1796533 6:0.6696915 7:0.052631579 8:0.14480722 9:0 10:0 11:0 
1 1:4.2199555 2:0.031182532 3:15 4:4.2199555 5:0.70230521 6:2.111434 7:0.071428571 8:0.057355844 9:0 10:0 11:0 
1 1:4.2174222 2:0.57363376 3:11 4:4.2174222 5:0.24238638 6:2.2315265 7:0.1 8:0.066939043 9:0 10:0 11:0 
1 1:4.2168211 2:1.0783138 3:11 4:4.2168211 5:2.1175513 6:0.99649393 7:0.1 8:0.094092677 9:0 10:0 11:0 
1 1:4.2159208 2:1.0682265 3:7 4:4.2159208 5:0.55109163 6:2.36378 7:0.16666667 8:0.13920217 9:0 10:0 11:0 
1 1:4.2152637 2:1.8052605 3:10 4:4.2152637 5:1.9804001 6:8.3354169 7:0.13888889 8:0.12423665 9:0 10:0 11:0 
1 1:4.214942 2:0.27241819 3:17 4:4.214942 5:4.2274321 6:7.7660959 7:0.078125 8:0.04877977 9:0 10:0 11:0 
1 1:4.2133833 2:1.0258923 3:16 4:4.2133833 5:0.44599474 6:2.3054232 7:0.066666667 8:0.12909244 9:0 10:0 11:0 
1 1:4.210495 2:1.0476776 3:11 4:4.210495 5:1.5270335 6:1.7867828 7:0.1 8:0.071884716 9:0 10:0 11:0 
1 1:4.2078796 2:1.0367511 3:14 4:4.2078796 5:2.1257202 6:1.1610978 7:0.076923077 8:0.13471842 9:0 10:0 11:0 
1 1:4.2073275 2:2.0733456 3:7 4:4.2073275 5:1.3847713 6:2.1078479 7:0.16666667 8:0.25213526 9:0 10:0 11:0 
1 1:4.2056411 2:1.0283178 3:8 4:4.2056411 5:1.4193075 6:2.1046064 7:0.14285714 8:0.13622105 9:0 10:0 11:0 
1 1:4.2052912 2:0 3:19 4:4.2052912 5:1.5229833 6:2.0179677 7:0.055555556 8:0.10880145 9:0 10:0 11:0 
-1 1:8.0049597 2:0.93517229 3:6 4:8.0049597 5:0.95468066 6:4.6453501 7:0.4 8:0.13521346 9:0 10:0 11:0 
-1 1:6.8476296 2:1.7635492 3:28 4:6.8476296 5:1.9328738 6:5.0938957 7:0.064814815 8:0.040233796 9:0 10:0 11:0 
-1 1:6.3747685 2:3.2469916 3:7 4:4.2498457 5:0.84735167 6:1.4844907 7:0.16666667 8:0.017753843 9:1.0624614 10:0 11:1.0624614 
-1 1:6.3130524 2:2.0733626 3:6 4:5.2617061 5:1.3555043 6:1.8927107 7:0.25 8:0.13636402 9:0 10:0 11:1.0513463 
-0.28375049378939332 1:6.2754138 2:2.0891717 3:6 4:5.2342271 5:1.2739356 6:2.3775501 7:0.25 8:0.11253803 9:0 10:0 11:1.0411867 
-1 1:6.2683595 2:1.0301438 3:22 4:6.2683595 5:3.4301422 6:6.7164491 7:0.083333333 8:0.0082054709 9:0 10:0 11:0 
-1 1:6.2552381 2:1.0451884 3:18 4:6.2552381 5:0.55225599 6:2.91984 7:0.088235294 8:0.14306424 9:0 10:0 11:0 
-1 1:6.2408576 2:1.0296897 3:18 4:6.2408576 5:0.085766704 6:3.0992656 7:0.088235294 8:0.12869048 9:0 10:0 11:0 
-1 1:6.1418869 2:2.994576 3:9 4:4.0945913 5:0.73751326 6:3.750149 7:0.125 8:0.037779038 9:1.0236478 10:0 11:1.0236478 
-0.87472660847340555 1:6.0843036 2:0.88402397 3:7 4:6.0843036 5:0.25783894 6:4.2121332 7:0.25 8:0.048204726 9:0 10:0 11:0 
-1 1:6.0758923 2:2.1304567 3:11 4:6.0758923 5:3.6637809 6:2.3229405 7:0.15 8:0.026324255 9:0 10:0 11:0 
-1 1:6.0183942 2:3.9076671 3:11 4:4.0122628 5:1.794065 6:4.2663022 7:0.1 8:0.015825485 9:1.0030657 10:0 11:1.0030657 
-0.33419364034826149 1:5.9810729 2:1.1844172 3:9 4:5.9810729 5:0.41128415 6:4.8437571 7:0.1875 8:0.061118439 9:0 10:0 11:0 
-1 1:5.8515255 2:0 3:11 4:5.8515255 5:2.9515249 6:4.7443785 7:0.15 8:0.15102494 9:0 10:0 11:0 
-1 1:5.8131167 2:0.83903636 3:18 4:4.1711846 5:1.8632622 6:8.5552461 7:0.073529412 8:0.027300662 9:0 10:0.82096604 11:0.82096604 
-1 1:5.7484475 2:1.7169589 3:9 4:5.7484475 5:0.31879686 6:5.9895315 7:0.1875 8:0.038987254 9:0 10:0 11:0 
-1 1:5.7369003 2:2.5483762 3:7 4:3.8246002 5:4.0561182 6:4.4756631 7:0.16666667 8:0.097002527 9:0.95615005 10:0 11:0.95615005 
-1 1:5.6647124 2:0.77267336 3:12 4:5.6647124 5:4.2576583 6:4.8347136 7:0.13636364 8:0.097657177 9:0 10:0 11:0 
-1 1:5.6637285 2:1.7330508 3:17 4:5.6637285 5:1.1458346 6:6.2661336 7:0.09375 8:0.063021537 9:0 10:0 11:0 
-1 1:5.6383314 2:0.63848317 3:29 4:5.6383314 5:3.6994271 6:5.2844934 7:0.053571429 8:0.088381764 9:0 10:0 11:0 
-0.46163005458664952 1:5.5681997 2:2.1387064 3:15 4:5.5681997 5:3.9548859 6:8.9098167 7:0.125 8:0.046982467 9:0 10:0 11:0 
-0.96057186517415372 1:5.5553796 2:2.5963256 3:6 4:4.5066685 5:1.6121967 6:7.4673327 7:0.25 8:0.14432999 9:0 10:0 11:1.0487112 
-1 1:5.4655054 2:1.0927305 3:41 4:5.4655054 5:0.71141621 6:7.1172561 7:0.0375 8:0.026434766 9:0 10:0 11:0 
-0.97418954526549828 1:5.4214333 2:0.48187964 3:12 4:5.4214333 5:7.4865212 6:6.7844303 7:0.15909091 8:0.097283239 9:0 10:0 11:0 
-1 1:5.4117658 2:0 3:49 4:5.4117658 5:0.34827181 6:11.693234 7:0.041666667 8:0.040248462 9:0 10:0 11:0 
-0.156723897724277 1:5.3967828 2:2.4232073 3:6 4:5.3967828 5:1.1688219 6:7.3567011 7:0.3 8:0.11553374 9:0 10:0 11:0 
-1 1:5.3682765 2:0.84727131 3:40 4:3.6350588 5:0.4620324 6:10.809467 7:0.032051282 8:0.027412636 9:0.86660884 10:0 11:0.86660884 
-1 1:5.3348592 2:3.1918799 3:6 4:4.2678874 5:0.10681586 6:1.1319044 7:0.2 8:0.12888753 9:0 10:0 11:1.0669718 
-0.98637459055935817 1:5.3322969 2:3.1881848 3:6 4:4.2658375 5:0.15737813 6:1.2939619 7:0.2 8:0.11750095 9:0 10:0 11:1.0664594 
-1 1:5.3248128 2:1.0754355 3:7 4:5.3248128 5:0.22941834 6:1.4111057 7:0.20833333 8:0.089444514 9:0 10:0 11:0 
-1 1:5.2504659 2:1.4563044 3:15 4:5.2504659 5:6.0294203 6:8.6311279 7:0.125 8:0.041355417 9:0 10:0 11:0 
-1 1:5.2379092 2:2.026839 3:15 4:5.2379092 5:0.27813703 6:2.5678044 7:0.089285714 8:0.072258008 9:0 10:0 11:0 
-0.033665143637237931 1:5.2369904 2:3.0999702 3:6 4:4.1895923 5:0.70598661 6:2.6569964 7:0.2 8:0.20865844 9:0 10:0 11:1.0473981 
-1 1:5.2040069 2:3.0647966 3:6 4:4.1632055 5:1.1540264 6:2.8347591 7:0.2 8:0.18881528 9:0 10:0 11:1.0408014 
-1 1:5.1861978 2:0.90653103 3:7 4:5.1861978 5:0.016905888 6:3.3152962 7:0.20833333 8:0.20686655 9:0 10:0 11:0 
-1 1:5.1596437 2:1.5957588 3:19 4:5.1596437 5:1.8497848 6:8.3825575 7:0.083333333 8:0.023427162 9:0 10:0 11:0 
-1 1:5.1588562 2:2.0563111 3:6 4:4.127085 5:3.235121 6:1.2368489 7:0.2 8:0.11017171 9:0 10:0 11:1.0317712 
-1 1:5.1451642 2:0 3:6 4:5.1451642 5:5.8418971 6:6.4440976 7:0.3 8:0.13998652 9:0 10:0 11:0 
-1 1:5.1419995 2:1.0569873 3:9 4:5.1419995 5:1.2073059 6:3.5031656 7:0.15625 8:0.045410525 9:0 10:0 11:0 
-1 1:5.1386941 2:0 3:30 4:5.1386941 5:0.46056188 6:3.6620885 7:0.043103448 8:0.051398373 9:0 10:0 11:0 
-1 1:5.1325439 2:0.92896722 3:11 4:5.1325439 5:1.842792 6:8.1552272 7:0.15 8:0.022761847 9:0 10:0 11:0 
-1 1:5.1169218 2:1.9525763 3:19 4:5.1169218 5:0.036843111 6:3.8556543 7:0.069444444 8:0.024773935 9:0 10:0 11:0 
-1 1:5.1068669 2:0.34741658 3:6 4:5.1068669 5:2.530494 6:3.2058108 7:0.25 8:0.074844661 9:0 10:0 11:0 
-1 1:5.0995985 2:0.34499972 3:30 4:5.0995985 5:2.5557168 6:3.1149271 7:0.043103448 8:0.082001931 9:0 10:0 11:0 
-1 1:5.0862855 2:2.9654642 3:9 4:5.0862855 5:2.0844102 6:3.5343204 7:0.15625 8:0.18742032 9:0 10:0 11:0 
-1 1:5.0132099 2:0.34143205 3:19 4:5.0132099 5:3.0190397 6:3.4941517 7:0.069444444 8:0.020431462 9:0 10:0 11:0 
-1 1:5.0087594 2:1.2511863 3:19 4:5.0087594 5:0.97318527 6:11.010738 7:0.097222222 8:0.025864693 9:0 10:0 11:0 
-1 1:4.9628847 2:0.40981816 3:22 4:4.9628847 5:2.1326516 6:4.487924 7:0.05952381 8:0.018011286 9:0 10:0 11:0 
-0.73488633235584222 1:4.9436834 2:0 3:29 4:4.9436834 5:2.8536846 6:4.164213 7:0.044642857 8:0.025254378 9:0 10:0 11:0 
-1 1:4.9285058 2:0.18588917 3:7 4:4.9285058 5:0.90865328 6:5.1434748 7:0.20833333 8:0.028117023 9:0 10:0 11:0 
-1 1:4.8626092 2:0.42502746 3:9 4:4.8626092 5:3.5253202 6:4.3333192 7:0.15625 8:0.011676857 9:0 10:0 11:0 
-1 1:4.8589082 2:0 3:16 4:4.8589082 5:4.9040149 6:2.7054163 7:0.083333333 8:0.030149405 9:0 10:0 11:0 
-1 1:4.8451355 2:0.72360428 3:31 4:4.8451355 5:3.3374552 6:8.6570651 7:0.05 8:0.057563316 9:0 10:0 11:0 
-0.38140655616087948 1:4.7832223 2:0.61761176 3:14 4:4.7832223 5:2.4003195 6:9.3307093 7:0.11538462 8:0.058446608 9:0 10:0 11:0 
-0.71192696421568191 1:4.7803722 2:0.69871059 3:23 4:4.7803722 5:3.4599732 6:5.0177076 7:0.056818182 8:0.023891761 9:0 10:0 11:0 
-1 1:4.772285 2:0.31350898 3:9 4:4.772285 5:1.1842502 6:5.9234127 7:0.15625 8:0.029287923 9:0 10:0 11:0 
-1 1:4.7448768 2:0.29145863 3:31 4:4.7448768 5:7.3236122 6:6.2336687 7:0.05 8:0.028925367 9:0 10:0 11:0 
-1 1:4.7048799 2:0 3:18 4:4.7048799 5:1.4675464 6:6.3494169 7:0.073529412 8:0.027439662 9:0 10:0 11:0 
-1 1:4.7002904 2:1.4811636 3:7 4:4.7002904 5:4.2547514 6:4.9892698 7:0.20833333 8:0.069035924 9:0 10:0 11:0 
-1 1:4.6804563 2:0.49350002 3:19 4:4.6804563 5:5.2810702 6:8.3715713 7:0.083333333 8:0.023531483 9:0 10:0 11:0 
-1 1:4.6181674 2:0 3:21 4:4.6181674 5:1.7281957 6:6.7780973 7:0.0625 8:0.040202076 9:0 10:0 11:0 
-1 1:4.6004038 2:2.2418234 3:16 4:4.6004038 5:2.740909 6:6.3757028 7:0.083333333 8:0.013923377 9:0 10:0 11:0 
-1 1:4.5904598 2:0.43389306 3:17 4:4.5904598 5:5.6996713 6:4.1792463 7:0.078125 8:0.015440294 9:0 10:0 11:0 
-0.74365886501973599 1:4.5676034 2:1.6602981 3:17 4:4.5676034 5:3.1331906 6:6.3307421 7:0.078125 8:0.030024592 9:0 10:0 11:0 
-0.87638843569060787 1:4.5624863 2:0.84191041 3:31 4:4.5624863 5:4.119268 6:9.3265417 7:0.05 8:0.041203853 9:0 10:0 11:0 
-0.081560553907619113 1:4.5411861 2:1.252159 3:19 4:4.5411861 5:2.5988672 6:6.877131 7:0.069444444 8:0.021398685 9:0 10:0 11:0 
-0.78704459471260113 1:4.5221994 2:0.62367981 3:6 4:4.5221994 5:5.1052229 6:5.3718535 7:0.25 8:0.17704817 9:0 10:0 11:0 
-1 1:4.5213752 2:1.3074159 3:14 4:4.5213752 5:0.0099218862 6:7.3450388 7:0.096153846 8:0.038279648 9:0 10:0 11:0 
-1 1:4.470563 2:0.59091378 3:21 4:4.470563 5:4.0562111 6:6.7642109 7:0.0625 8:0.10574677 9:0 10:0 11:0 
-1 1:4.4567735 2:0.25712732 3:14 4:4.4567735 5:2.5532477 6:7.2132032 7:0.096153846 8:0.053518442 9:0 10:0 11:0 
-1 1:4.4307247 2:0 3:32 4:4.4307247 5:5.5225447 6:5.5808395 7:0.040322581 8:0.041073431 9:0 10:0 11:0 
-1 1:4.4267584 2:0 3:20 4:4.4267584 5:4.8232297 6:6.0907381 7:0.065789474 8:0.071060832 9:0 10:0 11:0 
-1 1:4.4264022 2:0.22098876 3:14 4:4.4264022 5:2.2524441 6:7.4358354 7:0.096153846 8:0.017891807 9:0 10:0 11:0 
-1 1:4.4253091 2:1.8224259 3:10 4:4.4253091 5:0.28740596 6:7.8301492 7:0.13888889 8:0.049272395 9:0 10:0 11:0 
-1 1:4.3549219 2:0.80141018 3:11 4:4.3549219 5:2.6298428 6:8.0076715 7:0.125 8:0.038084396 9:0 10:0 11:0 
-1 1:4.3337565 2:0 3:8 4:4.3337565 5:0.41179209 6:8.0997351 7:0.17857143 8:0.017247381 9:0 10:0 11:0 
-1 1:4.3337012 2:0.24924658 3:12 4:4.3337012 5:5.4502123 6:5.959351 7:0.11363636 8:0.049140121 9:0 10:0 11:0 
-1 1:4.3107884 2:1.7801364 3:7 4:4.3107884 5:2.7458905 6:8.0241531 7:0.20833333 8:0.025475827 9:0 10:0 11:0 
-1 1:4.2923246 2:0.62815351 3:9 4:4.2923246 5:0.7592288 6:0.35540731 7:0.125 8:0.26416401 9:0 10:0 11:0 
-1 1:4.2921135 2:0 3:13 4:4.2921135 5:0.099750624 6:0.38546131 7:0.083333333 8:0.071423213 9:0 10:0 11:0 
-1 1:4.2833113 2:1.0797978 3:11 4:4.2833113 5:0.61280822 6:0.63750084 7:0.1 8:0.10580787 9:0 10:0 11:0 
-1 1:4.2778499 2:0.029521172 3:9 4:4.2778499 5:0.62749043 6:0.59248119 7:0.125 8:0.086220813 9:0 10:0 11:0 
-1 1:4.2757222 2:0.55011453 3:26 4:4.2757222 5:5.0043325 6:6.6061188 7:0.05 8:0.021202208 9:0 10:0 11:0 
-1 1:4.274451 2:0 3:19 4:4.274451 5:0.48103374 6:0.99720463 7:0.055555556 8:0.26255365 9:0 10:0 11:0 
-1 1:4.2724775 2:0.088841883 3:25 4:4.2724775 5:0.80395423 6:0.56026833 7:0.041666667 8:0.032832243 9:0 10:0 11:0 
-1 1:4.272403 2:1.0622521 3:8 4:4.272403 5:1.1566158 6:0.24067249 7:0.14285714 8:0.088304232 9:0 10:0 11:0 
-1 1:4.2705523 2:1.0646713 3:7 4:4.2705523 5:0.15694225 6:1.2593835 7:0.16666667 8:0.037341248 9:0 10:0 11:0 
-0.059930357034356077 1:4.2691154 2:0.13469331 3:25 4:4.2691154 5:0.66286698 6:0.74377668 7:0.041666667 8:0.075240479 9:0 10:0 11:0 
-1 1:4.2670624 2:1.0729618 3:10 4:4.2670624 5:0.16817258 6:1.3662043 7:0.11111111 8:0.11243411 9:0 10:0 11:0 
-1 1:4.2643349 2:0.096320701 3:17 4:4.2643349 5:0.26707684 6:1.0914946 7:0.0625 8:0.016727492 9:0 10:0 11:0 
-1 1:4.2628292 2:0.088755265 3:9 4:4.2628292 5:0.20312306 6:1.424582 7:0.125 8:0.09636535 9:0 10:0 11:0 
-1 1:4.2581195 2:0.039028887 3:11 4:4.2581195 5:1.3738083 6:0.51424449 7:0.1 8:0.2171435 9:0 10:0 11:0 
-1 1:4.2550924 2:2.116308 3:10 4:4.2550924 5:0.55657604 6:1.4939016 7:0.11111111 8:0.29819403 9:0 10:0 11:0 
-1 1:4.2547955 2:1.9515553 3:15 4:4.2547955 5:1.0665946 6:0.68938144 7:0.071428571 8:0.051475574 9:0 10:0 11:0 
-1 1:4.250981 2:0.1936579 3:6 4:4.250981 5:0.050571797 6:1.6348282 7:0.2 8:0.14177718 9:0 10:0 11:0 
-1 1:4.2503992 2:1.0482513 3:18 4:4.2503992 5:0.86708969 6:1.4036392 7:0.058823529 8:0.055050815 9:0 10:0 11:0 
-1 1:4.2493808 2:1.0446585 3:10 4:4.2493808 5:1.2297703 6:1.3422661 7:0.11111111 8:0.18201301 9:0 10:0 11:0 
-1 1:4.2478995 2:1.238143 3:16 4:4.2478995 5:0.12379519 6:1.6921672 7:0.066666667 8:0.098565974 9:0 10:0 11:0 
-1 1:4.2468232 2:1.0322561 3:11 4:4.2468232 5:0.23813389 6:1.6953378 7:0.1 8:0.11428736 9:0 10:0 11:0 
-1 1:4.2467374 2:0 3:11 4:4.2467374 5:1.4279514 6:1.0039317 7:0.1 8:0.21106266 9:0 10:0 11:0 
-1 1:4.2463739 2:0.4119545 3:15 4:4.2463739 5:1.2131076 6:1.2963942 7:0.071428571 8:0.078972479 9:0 10:0 11:0 
-1 1:4.240705 2:1.0389563 3:7 4:4.240705 5:0.43814261 6:1.9208155 7:0.16666667 8:0.08454679 9:0 10:0 11:0 
-1 1:4.2365949 2:0.089368998 3:9 4:4.2365949 5:1.0066111 6:1.718747 7:0.125 8:0.055333331 9:0 10:0 11:0 
-1 1:4.2363107 2:2.0886169 3:12 4:4.2363107 5:0.074695158 6:1.7241397 7:0.090909091 8:0.16269088 9:0 10:0 11:0 
-1 1:4.2336767 2:1.0627169 3:7 4:4.2336767 5:0.73038016 6:1.9963068 7:0.16666667 8:0.11911888 9:0 10:0 11:0 
-1 1:4.2317601 2:0.48346839 3:11 4:4.2317601 5:1.0682049 6:1.8823401 7:0.1 8:0.11193883 9:0 10:0 11:0 
-1 1:4.2302052 2:2.1133916 3:8 4:4.2302052 5:0.043456019 6:1.92993 7:0.14285714 8:0.035921063 9:0 10:0 11:0 
-1 1:4.2282997 2:1.0085963 3:8 4:4.2282997 5:0.46581766 6:2.0328873 7:0.14285714 8:0.10215575 9:0 10:0 11:0 
-1 1:4.2256375 2:1.0155406 3:7 4:4.2256375 5:0.3375853 6:2.2159064 7:0.16666667 8:0.078575224 9:0 10:0 11:0 
-1 1:4.2222805 2:0 3:12 4:4.2222805 5:1.3250315 6:1.8263914 7:0.090909091 8:0.21124107 9:0 10:0 11:0 
-0.20478735578492913 1:4.2205863 2:1.0439909 3:25 4:4.2205863 5:1.1551282 6:1.8329172 7:0.041666667 8:0.13859908 9:0 10:0 11:0 
-1 1:4.2204173 2:1.0285571 3:8 4:4.2204173 5:0.43545715 6:2.3220839 7:0.14285714 8:0.045521603 9:0 10:0 11:0 
-1 1:4.217738 2:1.0050687 3:14 4:4.217738 5:1.4599758 6:1.7696837 7:0.076923077 8:0.1437508 9:0 10:0 11:0 
-1 1:4.2166572 2:0.51857522 3:16 4:4.2166572 5:1.4919497 6:1.8902957 7:0.066666667 8:0.036966468 9:0 10:0 11:0 
-1 1:4.2154117 2:2.0766537 3:9 4:4.2154117 5:1.8960862 6:1.3548815 7:0.125 8:0.1957987 9:0 10:0 11:0 
-1 1:4.2136902 2:1.9668265 3:9 4:4.2136902 5:0.22169891 6:2.1020053 7:0.125 8:0.24001497 9:0 10:0 11:0 
-1 1:4.2128892 2:1.0259805 3:14 4:4.2128892 5:2.1225578 6:1.2100073 7:0.076923077 8:0.14215601 9:0 10:0 11:0 
-1 1:4.2118479 2:0 3:18 4:4.2118479 5:1.6910263 6:1.7018202 7:0.058823529 8:0.23209212 9:0 10:0 11:0 
-1 1:4.2112173 2:0.17316602 3:16 4:4.2112173 5:0.64587021 6:2.2037638 7:0.066666667 8:0.060620196 9:0 10:0 11:0 
-1 1:4.2103706 2:1.0954809 3:8 4:4.2103706 5:2.3204724 6:0.748175 7:0.14285714 8:0.070726561 9:0 10:0 11:0 
-0.87195016876080089 1:4.2102991 2:0.47526673 3:16 4:4.2102991 5:0.65260366 6:8.6698565 7:0.083333333 8:0.040297229 9:0 10:0 11:0 
-0.77227455835420811 1:4.2060198 2:0.16458346 3:19 4:4.2060198 5:0.58265197 6:2.337194 7:0.055555556 8:0.034792432 9:0 10:0 11:0 
-1 1:4.204683 2:1.0319085 3:9 4:4.204683 5:2.4271001 6:0.14423583 7:0.125 8:0.13032834 9:0 10:0 11:0 
-1 1:0 2:0 3:29 4:0 5:20 6:100 7:0 8:0 9:0 10:0 11:0 
-1 1:0 2:0 3:24 4:0 5:20 6:100 7:0 8:0 9:0 10:0 11:0 
-0.8535743058094396 1:0 2:0 3:18 4:0 5:20 6:100 7:0 8:0 9:0 10:0 11:0 
-0.54862091822405268 1:0 2:0 3:16 4:0 5:20 6:100 7:0 8:0 9:0 10:0 11:0 
-0.48464986929870058 1:0 2:0 3:12 4:0 5:20 6:100 7:0 8:0 9:0 10:0 11:0 
-0.93318066290668444 1:0 2:0 3:10 4:0 5:20 6:100 7:0 8:0 9:0 10:0 11:0 
